[-0.35142064,-0.30905902,-0.23680511,-0.22854498,-0.26249337,-0.18876815,0.1712833,0.09409692,-0.3649176,-0.019406281,-0.23223737,-0.29728538,-0.30599612,-0.050428715,0.34919336,0.2965797,-0.24943197,0.1089553,-0.13824722,-0.14853106,-0.25338787,-0.28557706,0.062262215,0.075340375,-0.16445783,-0.04531796,-0.031702083,0.13715771,-0.35834038,-0.10882081,0.07038808,0.07153239,-0.33736354,-0.19199072,-0.2632687,-0.13713029,-0.22382846,-0.32669353,0.15627314,0.07822892,-0.111988224,-0.24826112,-0.057892278,-0.03954286,-0.21401408,-0.012865706,0.3893368,0.30531344,-0.12853658,-0.1163611,-0.19585776,-0.1846476,-0.16190036,-0.020675583,0.0767131,0.12514633,-0.1259921,-0.07353403,-0.13350058,-0.15150124,-0.033489186,-0.18732165,0.15893108,0.13287663,-0.019870173,-0.14308107,-0.2001316,-0.098285004,-0.092200756,-0.104707554,0.22504427,0.13653062,-0.19791739,-0.12231859,-0.13315319,-0.1499971,-0.035041764,-0.14032742,0.24334656,0.24327362,-0.17373963,-0.18936297,-0.18424314,-0.07896578,-0.15049037,0.040639997,0.20776965,0.1572553,-0.34843692,-0.13164663,-0.17189342,-0.074394085,-0.11642945,-0.20321953,0.1836707,0.047271006,-0.34004608,-0.020756027,-0.026361628,-0.20478085,-0.36671156,-0.07291268,0.20711353,0.15407036,-0.22588621,-0.100713596,-0.11020447,-0.028971553,-0.11838864,-0.1728779,0.04669479,0.11125642,-0.2054223,-0.25090402,-0.24059778,-0.27566284,-0.20396389,-0.15079758,0.11548493,0.19857334,-0.2512383,-0.21333897,-0.15883653,-0.24470164,-0.32766375,-0.18291785,0.15874387,0.078941174,-0.30847183,-0.057052813,-0.002400396,-0.16966611,-0.19817813,-0.032219056,0.29313043,0.12594657,-0.012460402,0.05441881,-0.06955407,-0.2547649,-0.11573193,-0.19976038,0.08669035,0.029856615,-0.121243656,-0.06468419,-0.031017048,-0.14316979,-0.20901698,-0.18012731,0.14027268,0.060669895,-0.083737865,-0.066404946,-0.03182756,-0.24877886,-0.18838865,-0.3087194,0.11808305,0.08753785,0.018999575,-0.23400466,-0.16972691,-0.2254905,-0.07129214,-0.058009867,0.25683632,0.13399974,-0.13686413,-0.09672489,-0.046016615,-0.1316714,0.06425735,0.0037694573,0.121718146,0.15408666,-0.042970136,-0.073365994,-0.16726604,-0.29800296,-0.10365591,-0.23293354,0.069802836,0.062021304,-0.10543401,-0.14258097,-0.10106607,-0.11353682,-0.21275939,-0.17944242,0.23649876,0.16687366,0.07395086,-0.32804757,-0.12847975,-0.33814818,-0.0089963665,-0.21419705,0.19383721,0.18396501,-0.22800359,-0.18933374,-0.07370281,-0.12833285,-0.18152507,-0.02715102,0.21682815,0.116297185,-0.15138535,-0.07940357,-0.056838904,-0.07361269,-0.19130974,0.017472906,0.07836873,0.01290557,-0.22537142,-0.10035052,-0.058654655,-0.21469033,-0.19974169,-0.14562587,0.22594701,0.058499634,-0.2508249,-0.22139388,-0.015798096,-0.090784304,-0.10379043,-0.16792384,0.13774192,0.121888064,-0.28165075,-0.13352494,-0.19362172,-0.1792623,-0.22484086,-0.05775038,0.11407368,0.09049791,-0.0020841595,-0.20455578,-0.13241339,-0.08494928,-0.3272771,-0.006915699,0.17915976,0.12895177,0.04763658,-0.009523552,-0.04494837,-0.13591267,-0.24447285,-0.022671392,0.19567221,0.21444345,-0.0055845915,0.008723428,0.01822411,-0.08447339,-0.15282796,-0.0057879817,-0.029005917,0.12639627,0.08169059,-0.053028304,0.008809446,-0.15296642,0.01952181,-0.0034096763,0.022674477,0.08087354,0.18676336,-0.16801047,-0.15152484,-0.08615039,-0.0781681,0.08183425,0.13883702,0.27052537,0.14237386,-0.072296314,-0.14446545,-0.12317287,-0.06817965,-0.07675151,0.1936289,0.21796341,-0.010664427,-0.13917238,-0.10348838,0.022643585,-0.07225944,0.036378488,0.0988583,0.10670545,0.11390188,-0.12213742,-0.018241048,-0.09664203,0.015329921,0.016369456,0.040228494,0.06695776,0.19230643,-0.12953708,-0.03851543,-0.05880018,-0.08064978,-0.08185944,0.16232531,0.06985773,0.16715437,-0.122882,-0.13617958,0.00097533106,-0.019543383,0.12802358,0.110195264,0.18460347,0.09810817,-0.13096663,-0.10209398,-0.14888884,-0.03829613,-0.03296909,0.10200915,0.07748157,0.043686207,-0.073713765,-0.035489306,-0.027800757,-0.16167606,0.057120964,0.08942288,0.087188214,-0.07679769,-0.057054523,-0.13216814,-0.24547671,-0.11214342,0.04149946,0.083005376,0.18307799,0.021206787,-0.02377607,-0.09754413,0.045275293,-0.2093906,-0.09454996,0.07116882,0.1769667,0.008489431,-0.113943,-0.024997871,-0.11352534,-0.14284864,0.11723127,0.009603503,0.17293957,0.026919272,-0.20735806,-0.17332554,-0.11601633,-0.1388538,0.070867226,0.20649613,0.15232465,-0.02440966,-0.0120874345,-0.09648693,-0.11100593,-0.07632731,-0.045540337,0.2313974,0.20250368,-0.16582853,0.07244367,-0.075898245,-0.089232385,-0.10617233,0.019956172,0.04073403,0.11497854,0.07018728,-0.04742031,-0.14609532,-0.0663698,-0.094192885,-0.08615122,-0.04459048,0.064086944,0.1646552,-0.061609667,-0.075864196,-0.09849574,-0.1052419,0.0024356593,0.09549417,0.17839335,0.029243132,-0.10431015,-0.09770773,-0.07770456,-0.041550387,0.021561068,0.045386832,0.15176062,0.02227061,-0.15286432,-0.123582564,-0.033737976,0.02475785,0.022562385,0.11138109,0.16063634,0.08060099,-0.053141575,-0.037430935,-0.04663363,-0.040740542,0.053748313,0.029064156,0.16010936,0.025159827,-0.08552703,-0.020423818,-0.106728375,-0.05161708,-0.030889213,0.07154331,0.17351751,0.058525316,-0.07938502,-0.14025953,-0.11469622,0.021801494,-0.056185935,0.06728714,0.23583397,0.0039776643,-0.10685286,-0.11348163,-0.04346907,-0.059464555,0.09788094,0.083005935,0.12350029,0.061526515,-0.04920568,-0.01109911,-0.050549407,-0.07667898,0.01640851,0.025402017,0.012294225,-0.08806514,-0.06334582,0.06119362,-0.092399396,-0.08817334,0.16061698,0.0949227,0.23857568,-0.005544774,-0.14032361,-0.15731402,-0.036795877,-0.16453648,-0.1253577,0.031709306,0.11449803,-0.06367558,-0.15559506,-0.0879137,-0.15172602,-0.18683106,-0.025953948,0.062003274,0.07371828,-0.19426905,-0.23927628,-0.21454073,-0.16381802,-0.25089452,-0.021882711,0.18708907,0.12636343,-0.17064023,-0.092348464,-0.19261299,-0.28523496,-0.13559012,-0.09250183,0.24611571,0.23665088,-0.01741448,0.004811055,0.003708675,-0.08957185,-0.09269105,-0.11354046,0.038777817,0.11557586,0.016385725,-0.043487623,-0.08172636,-0.0979714,-0.060106665,-0.14060548,0.10081802,0.0833131,-0.029416421,-0.18584837,-0.16117558,-0.065538935,-0.030321794,-0.22943762,0.15875706,0.24649405,-0.09120437,-0.18272693,-0.074318476,-0.156827,-0.045570046,-0.04058867,0.26467422,0.16925845,-0.05695139,-0.11152655,-0.1677395,-0.15810135,-0.066240616,-0.047675744,0.083166115,0.17265534,-0.05603203,-0.18718511,-0.09209838,-0.09822041,-0.023231393,-0.066394754,0.06583702,0.10646358,-0.02611896,-0.0444465,-0.1622826,-0.15562116,-0.015061395,-0.1396127,0.14883107,0.21528721,-0.110188775,-0.17534475,-0.13171841,-0.120320916,0.006713394,-0.1730327,0.14817837,0.1585079,-0.049243275,-0.16519943,-0.19856687,-0.23971543,-0.051042642,-0.030982232,0.16007233,0.2022958,-0.0322478,-0.038782135,-0.11104142,-0.1313505,-0.009706119,-0.05049319,0.045198474,0.14489925,-0.07910341,-0.036141187,-0.16605915,-0.20112242,-0.12205394,-0.018735487,0.1912297,0.20983046,-0.107367314,-0.12899905,-0.08258577,-0.096171595,-0.1476817,-0.18514894,0.021185497,0.12884578,-0.1561437,-0.19039464,-0.102898926,-0.1316013,-0.24192746,-0.12766309,0.10727179,0.06940822,-0.11812569,-0.13883047,-0.23828994,-0.13496144,-0.19576624,-0.020376286,0.15546846,0.21063745,-0.032710552,0.039994176,-0.07565251,-0.25088704,-0.1774517,-0.10344295,0.16182941,0.18379764,-0.05997243,-0.012763629,-0.051767856,-0.102123976,-0.10384183,0.0016445761,0.10048407,0.1403071,-0.017950017,-0.110551834,-0.017095245,-0.12680465,-0.10968902,-0.1790894,0.01994923,0.074211076,-0.048867453,-0.23470305,-0.06314013,-0.15697943,-0.09887787,-0.010476251,0.09197251,0.2082262,0.03024026,-0.09133502,-0.08531134,-0.16081692,0.015263539,-0.077417985,0.2432856,0.16309607,0.027250696,-0.10500046,-0.04615381,-0.17052232,0.007397503,-0.15037242,0.105591916,0.08540593,-0.03325544,-0.15454312,-0.14385426,-0.14956725,-0.012401499,0.065875284,0.04818881,0.11430753,-0.014597196,-0.14318432,-0.11576123,-0.108107165,0.018250085,-0.12529564,0.13314024,0.19573233,0.014111629,-0.2235036,-0.061150137,-0.09295584,0.024015767,-0.08274909,0.26370493,0.26084378,-0.070851356,-0.20818113,-0.06372099,-0.17239821,0.016337793,0.05260634,0.1691092,0.12901947,-0.062489193,-0.12106509,0.03228282,-0.08829493,-0.02111909,0.12196295,0.12163836,0.04072265,-0.07408614,-0.020978943,-0.075311825,-0.24151371,-0.12351591,-0.055792265,0.15564594,0.18844531,-0.035113305,-0.06436253,-0.143443,-0.12117238,-0.023085069,-0.13436161,0.06964714,0.1688079,-0.11250799,-0.22683285,-0.015622548,-0.1375994,-0.15868792,-0.123705015,0.08654673,0.16660821,-0.06179651,-0.29345578,-0.12641534,-0.14973266,-0.2236303,-0.039829813,0.19063969,0.1712267,-0.024387192,-0.1718502,-0.10612908,-0.14602989,-0.19468175,-0.10201592,0.2693135,0.1429575,-0.03959339,0.050719168,-0.02873984,-0.13863419,-0.04007676,-0.10930352,0.0783235,0.14508322,0.012418428,0.005260736,-0.019890584,-0.113584906,-0.05342904,-0.061987273,0.109998286,0.110806696,0.04694854,-0.19289659,-0.05959751,-0.06719586,-0.14447667,-0.1385789,0.15085931,0.18980446,-0.045832854,-0.17024866,-0.18699428,-0.16227949,-0.023292279,-0.0013686665,0.13201198,0.14453103,-0.009272809,-0.07600644,-0.13771397,-0.1966064,0.049511172,-0.1249497,0.12376875,0.16596106,-0.0048535415,-0.10103193,-0.030284913,-0.036194786,-0.037642304,-0.015367266,0.09624121,0.09939615,0.03493693,-0.03728559,-0.10376692,-0.13650447,-0.027156916,-0.07112668,0.0932245,0.17184697,0.0064124595,-0.17949256,-0.12153944,-0.12124476,-0.041696757,-0.116495155,0.16864885,0.1626157,0.015788404,-0.16409047,-0.111077905,-0.14908628,-0.10477368,-0.044729624,0.18147422,0.21553844,0.03890645,-0.051685575,-0.0032565582,-0.10269226,-0.11605184,0.037510917,0.05975836,0.17617781,-0.028333329,-0.01807623,-0.09770078,-0.1094791,-0.11953264,-0.09326471,0.16147324,0.13066033,0.012322194,-0.19560215,-0.0681772,-0.11407764,-0.014690215,-0.07751768,0.11745747,0.09062099,-0.09283562,-0.24267855,-0.112879425,-0.09042945,-0.184192,-0.047040403,0.21938741,0.1005822,-0.12056652,-0.1680654,-0.16340742,-0.12546265,-0.10660642,-0.09331977,0.1806597,0.105652094,0.0059301164,0.027376205,-0.03797542,-0.08476611,-0.13029525,-0.17112106,0.1907519,0.17180905,-0.09414495,0.12380068,-0.02431278,-0.07919875,-0.079515256,-0.113740884,0.039770897,0.00935074,-0.102588594,-0.009745787,-0.007062631,-0.053175166,-0.043384135,-0.17440194,-0.0018988039,0.040309887,0.022909455,-0.20834553,-0.022749659,-0.14641462,-0.070331424,-0.15726745,0.1768372,0.14626509,-0.041216318,-0.07628331,0.048977237,-0.15132271,0.04913208,-0.026374245,0.15590402,0.19056925,0.010240939,-0.0771187,-0.05958831,-0.13403565,-0.05083507,-0.006431656,0.11061908,0.056146536,-0.052023333,-0.107061185,-0.060475264,-0.15974487,0.03616754,-0.15696359,-0.0028936777,0.09296789,-0.036422256,-0.10331077,-0.034783058,-0.041317582,-0.008909662,-0.16895492,0.12182514,0.11335844,0.0032934505,-0.14329801,-0.01890978,-0.089396335,0.110303,-0.14304517,0.10935243,0.13634968,-0.034124926,-0.12641689,-0.01568278,-0.061052278,-0.034673244,-0.03041032,0.08558536,0.093989395,-0.049983613,0.053184755,-0.044919845,-0.02925527,-0.078785874,-0.15159807,0.027160319,0.06942939,-0.124012,-0.029382536,0.017274553,-0.1391759,-0.08786229,-0.13912576,0.13503416,0.17057236,0.033418506,-0.2281169,-0.02183503,-0.09247171,-0.011332654,-0.17985775,0.0223672,0.09691483,-0.060927995,-0.09612249,-0.08972352,-0.06344503,-0.20740846,0.0680759,0.06440022,0.17163418,-0.22515675,-0.22636665,-0.21699019,-0.2947318,-0.22116087,-0.025600163,0.064050466,0.049781546,-0.22075438,-0.04772328,-0.13237749,-0.3388163,-0.19992979,-0.13513675,0.20177206,0.1505248,-0.1382372,-0.013727063,-0.012575374,-0.12060287,-0.015315654,-0.0714322,0.09555303,0.08809168,-0.16093434,-0.10762087,0.055813946,-0.16103485,-0.07004229,0.017263956,0.018118678,0.057561204,-0.077027895,-0.10552785,-0.0859108,-0.27218828,-0.08454494,-0.14843704,0.10686561,0.1284905,-0.022566242,-0.08415398,-0.10120218,-0.19259049,0.044385355,-0.08106324,0.22002278,0.24521497,-0.14983945,-0.15994464,-0.13158917,-0.10280443,0.07817624,-0.019256791,0.10197748,0.13216437,-0.021810928,-0.042583182,-0.084052674,-0.17885914,-0.048746474,0.039772697,0.004855409,0.18368189,-0.062909484,-0.031104725,-0.07682548,-0.15070121,-0.005487777,-0.07184417,0.13202901,0.19060391,-0.027925935,-0.25270423,-0.14148268,-0.24825644,0.09138166,0.0014773151,0.14759652,0.2506316,-0.23635273,-0.19793202,-0.14207785,-0.24679968,0.07447191,-0.14076135,-0.010513611,0.20481883,-0.16870455,-0.13512005,-0.0032096559,-0.14403853,-0.088345006,-0.061057393,0.024449546,0.14519417,-0.24675837,-0.032729886,-0.020386584,-0.2955536,-0.05357267,0.010928801,0.0607935,0.28198466,-0.122107305,-0.011720887,-0.14652093,-0.12882932,-0.12115623,-0.12178493,0.020072747,0.003552935,-0.16743855,-0.0891634,-0.09825852,-0.085573204,-0.18354802,-0.07825054,-0.0080668125,0.14446895,-0.11780589,-0.14621815,-0.03771008,-0.06995704,-0.28723437,-0.021556398,0.13295023,0.1375371,-0.053266425,-0.054322254,-0.08898804,-0.20969036,-0.12921491,0.04533637,0.14052951,0.25371063,0.0016608747,-0.028770905,-0.029208316,-0.063462414,-0.19802831,0.06778495,0.20410343,0.11012289,0.024388283,-0.11646842,-0.11750839,-0.10642084,-0.13511136,-0.03886646,0.12499148,0.07114738,-0.027264986,-0.10401525,0.053425957,-0.036439106,-0.11833501,-0.016427537,0.14354628,0.12603553,-0.09568873,-0.15447527,-0.23200044,-0.19536975,0.041357413,0.024264649,0.18929803,0.20969333,-0.01500699,0.03444257,0.013672287,-0.009911789,-0.103659354,-0.11116411,0.11434651,0.1388248,-0.05780604,-0.029630676,-0.03188609,-0.11987684,0.059683863,0.03331154,-0.022947472,0.15353133,0.16271241,-0.14459248,-0.014972323,-0.13913493,-0.11916571,-0.13371293,0.33137268,0.14608641,0.035179384,-0.24202879,-0.2405886,-0.09111347,0.13857879,0.08524875,0.1055423,0.18959416,-0.07223342,-0.11384461,-0.03691836,-0.14369603,-0.11674453,0.05327277,0.17301613,0.20871496,-0.022785429,0.045863975,0.047143854,-0.050112367,-0.06605591,0.08678989,0.09638997,-0.0044344547,-0.1854763,0.12531637,-0.016313476,-0.17605914,-0.05113142,0.04277254,0.23221818,0.12646821,-0.046518583,-0.06397243,-0.12126405,-0.0101112975,-0.23418553,-0.0019729517,0.13976915,-0.010723131,-0.18967606,-0.15040325,-0.09460468,-0.20486127,-0.16286743,-0.07507274,0.12208455,0.09923712,-0.28081557,-0.15894477,-0.23848799,-0.17979065,-0.31534502,-0.17756736,0.10185032,0.037772387,-0.2521278,-0.07387026,0.026967693,-0.01763315,-0.40448055,-0.1370408,0.25330836,0.28224197,-0.1524884,-0.008104019,-0.046161436,0.010838599,-0.22506928,-0.033212934,0.056251906,0.069674686,-0.11006141,-0.021954557,-0.18012987,0.013020326,-0.24773145,-0.091454715,0.009886099,-0.003196078,-0.13437314,-0.120413914,-0.08738137,-0.09558708,-0.36694613,-0.18571833,0.11115204,0.07937769,-0.09335304,-0.009838168,-0.04614312,-0.08017104,-0.2707683,-0.17587881,0.12679917,0.18764383,-0.19362675,-0.19132844,-0.15097588,-0.020221429,-0.16382872,0.056101754,0.038743854,0.12759542,0.022279691,0.004166889,-0.022570496,-0.25188857,-0.044872407,-0.16319862,0.002398038,0.042686533,0.021314573,-0.13826533,-0.06287765,-0.024254562,-0.26263505,-0.06173171,0.23643288,0.14988723,-0.2219012,-0.07941616,-0.12170849,-0.09341102,-0.0079120975,-0.045125708,0.087823726,0.08622721,-0.2763744,-0.093702696,-0.19528773,-0.06953564,-0.2854851,0.003357872,0.1584083,0.077515066,-0.13489795,0.021735193,-0.09058889,-0.025615787,-0.28565735,-0.11744033,0.10119765,0.0764242,-0.2068899,-0.014686477,-0.07153576,-0.05011696,-0.5800727,-0.08974868,0.17158653,0.16258132,-0.3272868,-0.14625865,-0.05324531,0.04907384,-0.3129257,-0.056084476,0.11454253,0.024021506,-0.21756674,-0.12665938,-0.06758083,-0.24599998,-0.2579794,-0.1350533,0.17881863,0.11795384,]