[0.0004508868,-0.050712556,0.045070082,0.023712456,-0.049957775,0.01171954,-0.025301445,-0.00087026507,-0.0372862,0.05496554,-0.031796023,-0.065685205,0.044440135,0.051717035,0.04199128,0.052841157,0.0533773,0.0001546368,-0.043439478,-0.052673906,0.01740554,-0.04199446,0.059477657,-0.038433738,0.040450603,0.012270965,0.041023545,0.008860715,0.061166182,-0.028234836,-0.0009064302,-0.017568965,-0.06593979,0.0380579,-0.051693097,0.016194694,-0.03378122,0.04582694,0.03648773,-0.061587825,-0.025586203,-0.048742525,0.0075940043,0.04629393,0.04468713,0.06131518,0.037400864,0.030626476,0.0063327253,0.02028507,-0.05564318,-0.035292923,-0.03141325,0.0668454,0.0047916323,0.03783509,-0.046137616,0.021910466,-0.0209101,0.011079557,0.04783058,-0.045364372,0.058725476,0.029458538,0.032438524,-0.023311973,-0.014757659,0.04422649,-0.013626512,-0.038311217,-0.019879155,-0.0154453255,-0.058827296,-0.04083903,-0.048367836,-0.039534464,-0.055160027,0.048712157,-0.020004261,0.02961012,0.053283192,0.04400403,0.046388537,0.019757517,0.03829737,-0.0073483065,-0.0006462112,0.05244703,-0.022297032,0.0055624694,-0.04449046,0.021023571,0.022455975,-0.0592513,0.027139783,-0.014160793,0.032750405,0.021604694,-0.00019539148,0.027439319,-0.01590076,0.06261359,0.038719393,-0.06442182,0.041852884,0.019995488,-0.007858567,-0.017695565,0.01284226,-0.00074730814,-0.06409236,0.048525766,0.0028241128,-0.020463906,-0.024692077,-0.0191482,-0.0603707,-0.018172242,-0.01838344,0.062011868,-0.052673683,0.03415554,-0.04109527,-0.049898144,-0.014077224,0.04109452,-0.03629911,0.0066543743,-0.007833451,0.05039656,0.019172594,0.005179018,0.0396593,0.011282049,0.011079848,-0.025992375,0.04242468,0.0573807,-0.059895873,-0.05954088,-0.05502361,-0.060226906,-0.024837751,0.03335222,-0.02676668,0.033549197,0.012680665,0.020371124,-0.021714099,-0.0594244,0.047680542,0.00061412156,0.0056830123,0.0028720573,0.04223887,-0.043488905,0.01922322,0.046443716,-0.025440548,-0.039333135,0.028445251,-0.033501763,-0.061467297,-0.016543452,0.0061786994,0.052440338,-0.06739074,0.01751586,-0.03516531,-3.0718744e-05,0.046411403,0.012239516,0.03854152,0.05813344,-0.051275373,-0.0014068931,-0.02665769,0.0403724,-0.037219763,-0.043392316,0.004993513,0.041747443,-0.02606222,-0.01903256,0.014864594,-0.033770647,-0.009255897,-0.017729051,-0.044572055,0.01675608,-0.03284734,-0.030433178,0.05018168,-0.010445368,0.037492663,-0.06320617,0.03037554,-0.033475235,-0.055347525,0.049568474,-0.030044924,0.0418503,-0.0064029247,0.0041004494,-0.05880761,0.057322934,0.020852976,-0.04365487,-0.062339477,0.032031678,-0.060913946,0.057173505,-0.016245902,-0.016105708,-0.0026081726,-0.007022094,-0.041614383,-0.050162077,-0.050697934,0.06482042,-0.039681617,0.037469037,-0.03777401,-0.05754201,-0.019040529,-0.0664536,0.065968215,0.059240863,0.021977857,-0.026137274,0.007094674,0.036349557,0.0058909506,0.06254506,-0.0461891,0.013756134,0.0072408915,0.013353594,0.038670726,-0.05583545,0.03822512,0.005906567,0.0054691434,0.033101216,-0.044035442,0.0043140724,0.050602235,-0.025788035,-0.008967586,0.027643934,0.048218645,0.03825617,-0.0043396875,0.0021547452,0.034381248,0.044647396,0.0013909489,-0.01814581,0.05508507,-0.04384716,-0.056554608,-0.030616932,-0.05626508,0.049728207,0.036035217,0.032909833,0.03103412,-0.06598396,0.01925677,0.013707675,0.0024141967,-0.06206137,0.03896101,0.030084513,-0.015744627,0.03510534,0.05057802,0.027766548,-0.035345174,0.055722393,-0.026129577,-0.04092821,-0.026596133,0.0044214725,-0.04903278,-0.0466637,0.047824815,0.053941406,-0.02341526,-0.0057787113,-0.01727201,0.032371312,-0.017400812,-0.01347962,0.0607298,-0.018918283,0.048054926,-0.053255253,0.05336128,-0.055119406,0.065778926,0.049265273,0.016283661,-0.043593682,-0.0049784593,-0.0047694147,-0.034024123,0.058181003,-0.013826836,-0.039144367,-0.008234046,-0.038319588,0.054324776,-0.04493945,-0.049637087,0.04665049,-0.046664376,0.006112337,-0.0049787797,0.007677898,-0.061281856,-0.03409198,-0.002542071,-0.029435944,0.02882187,0.009775825,0.030980587,-0.005263716,0.0010087416,-0.039390497,0.048903644,-0.043337993,-0.053147532,-0.014653377,0.040121853,0.025597647,-0.05771397,-0.044084612,-0.061069053,-0.06501388,-0.02816534,0.003667362,-0.059307378,0.021923497,-0.009844519,0.044965334,-0.06305515,0.009111591,0.019501343,-0.05975184,0.066334665,0.05582746,-0.042103462,0.031713642,0.06365624,-0.02184229,0.06164156,0.041793235,-0.05623667,0.054796614,0.04286328,-0.066808715,0.0053243265,-0.04890319,0.010542743,0.03910087,0.051767103,0.06542574,-0.004734203,-0.031549137,-0.048512995,0.057153694,0.04847625,0.032810643,0.060342148,0.06715144,-0.02610964,0.031960897,-0.03608749,-0.040730834,-0.025239341,-0.0057759956,0.04366781,5.19827e-05,0.010846555,0.06495653,-0.038708307,-0.027647901,0.0319295,-0.0631619,-0.0661353,-0.042392224,0.0243949,0.040675394,0.027537115,-0.06104495,0.049269803,0.05011455,-0.050299026,-0.0034368709,0.017274939,-0.0512031,0.016018204,0.0078986585,-0.046253804,0.013887942,-0.05553896,0.031368352,0.041005723,-0.056378197,-0.035442933,-0.01044834,0.050287187,0.023695506,0.05040644,-0.00080509484,0.025669456,0.036008433,0.030895516,0.012206107,-0.013925444,0.040508933,0.04366628,0.065704525,-0.028712813,-0.037157673,0.052873023,-0.0017551184,0.053264327,0.05796963,-0.05861266,0.03258241,-0.007947199,0.05283785,0.015331261,-0.005122412,-0.0021574125,-0.067324474,0.0014817491,0.06664994,0.008180536,0.049318954,0.037592106,0.026254527,-0.031732056,0.049204707,0.0075922683,-0.04654081,-0.023163635,0.016434379,0.06290153,-0.027535345,-0.04142494,-0.023501609,0.0050637797,-0.06520823,0.024348125,-0.012080312,0.062057212,0.03672944,0.046009503,0.061196655,-0.054324456,0.03635978,0.047369152,-0.042209484,-0.012221344,-0.022433806,-0.050789665,-0.064582326,0.01913122,0.042875826,-0.027377121,-0.006680567,0.045814067,0.04517056,0.022198297,-0.055759784,-0.04785107,-0.04297114,-0.035917055,-0.016357735,-0.065452784,-0.032752283,-0.039293334,0.058549732,0.022924319,-0.038926803,-0.02244237,0.05450432,-0.04360265,-0.044586577,-0.018322509,-0.00803506,0.04872278,0.06626515,0.03280375,-0.030108795,-0.032147948,0.01585596,0.045110993,-0.033510473,-0.021074317,-0.020212743,0.019320756,0.03993252,0.02538272,0.027816743,0.0040543675,-0.011223853,-0.0069960803,-0.03502118,-0.009756707,0.038770124,0.013032474,0.051285736,0.06367792,-0.03925184,-0.018603187,0.048648596,0.007870793,-0.020114072,-0.016188476,0.048433132,-0.011233348,0.032928355,0.056387387,-0.039505575,-0.032422986,0.032375693,-0.061636996,-0.026967451,0.0030483082,0.023076482,0.04048457,0.024937198,-0.045771778,-0.051731385,0.026214615,0.037408784,-0.056044333,0.0005460903,-0.025500562,-0.0055592693,0.020805381,0.03692793,-0.04902865,0.03925342,0.035596706,-0.055004004,-0.00524956,0.023232922,-0.014016744,-0.04446276,-0.02308254,-0.01496955,0.034973137,-0.024653934,0.025553778,-0.060248308,0.034426965,0.040134564,-0.03631349,-0.024970364,-0.007522214,-0.014337622,0.04230216,0.018301107,0.022038035,0.017932557,-0.02046638,-0.05404482,0.008329123,0.06440604,0.0028434247,0.030232795,0.059935734,0.06660029,-0.0004220605,0.06371836,-0.054039612,0.006826639,-0.015292551,-0.0043661,-0.02219177,-0.042920783,0.03834925,-0.0026639476,0.024992652,-0.062363513,-0.06693352,-0.014651801,-0.025453497,-0.034185927,0.026100561,0.028769553,-0.05635101,0.020944022,0.02201382,-0.04530961,0.005975999,0.06422508,-0.06476102,0.001892291,-0.030768856,0.005771272,-0.027011942,0.02821584,0.00030572712,0.02327174,-0.020159945,-0.066390276,-0.018157717,0.058783635,0.019023322,-0.009450354,-0.05225834,-0.02861017,-0.02648687,0.011700049,-0.04635217,0.05874248,0.0084573105,0.059813455,0.009322174,-0.0145859085,0.054608777,0.025922433,-0.031634636,0.018561907,-0.029895522,-0.06022506,-0.0062518716,-0.010286182,0.060854614,-0.03204466,-0.063091524,0.061996892,-0.05100787,0.014106676,-0.06551588,-0.05847431,-0.022013977,-0.011269052,0.02557502,-0.06173768,0.03995794,0.00035140663,0.008356199,-0.0118002,0.036820598,-0.030100822,-0.04693562,-0.058542233,0.015287474,-0.0490251,-0.03600006,-0.025251716,-0.020364378,-0.06498034,0.029701464,0.021620438,-0.048332438,0.0025843084,0.05551573,-0.066426426,-0.009534597,0.040281713,0.06542961,-0.02731219,0.0011052415,-0.0064872503,-0.028097615,-0.052662354,0.020763353,0.062457174,0.024429671,-0.011896156,0.046521388,0.06520541,0.01324515,-0.014741529,-0.015900053,-0.060026553,0.046005197,0.051928587,0.022034124,-0.028488632,-0.020813964,0.056553498,0.033394523,0.015678361,-0.060066193,0.06633888,0.03818036,-0.046948977,0.022576183,0.000945352,0.037181146,-0.03325279,-0.011199091,-0.03941185,-0.055897135,0.0009044409,0.05289478,0.009393774,0.016529761,-0.060199738,0.04944697,0.017338194,-0.015811227,0.055910148,0.026971772,-0.06530378,0.049777232,-0.012993962,-0.062139798,0.022097163,-0.052809585,0.05962208,0.030229464,-0.047490742,0.0065269694,-0.010101721,-0.0015116408,-0.0027475953,0.0492744,-0.0062439144,0.063007414,-0.05044724,0.05003903,0.062203035,-0.0010705814,-0.052904084,0.004142165,-0.06346881,-0.03378988,0.03413687,0.018302582,-0.014133319,-0.022111896,-0.060864456,0.039996117,0.06719737,0.035366856,0.055074945,-0.003977947,0.008096516,-0.03040782,-0.044238992,0.056931004,-0.031090617,-0.045670982,-0.0417701,0.030367568,0.0592324,-0.066450946,0.06720132,-0.02143241,0.035903223,-0.021082815,-0.020130396,-0.03900203,-0.060988422,-0.03840766,-0.06431926,-0.017830681,-0.04430245,-0.020509955,0.035120077,-0.031194996,-0.045252293,0.0032602325,-0.03509453,0.008297116,0.02354414,0.00017207116,-0.009961832,0.007129878,0.019377962,0.05938241,0.013863966,0.05282657,-0.00026474148,0.06579772,0.056937493,-0.043989938,0.035320304,-0.01288677,0.05077029,-0.058882345,-0.000788942,0.010240808,-0.014567558,-0.0062403157,-0.0004555285,0.029654808,-0.054776255,0.03225162,-0.06343781,0.054603174,-0.004733838,0.055935375,-0.0055741034,-0.0037815645,0.02642981,0.033137903,0.04419055,0.025212638,0.06418441,0.046952978,-0.005354885,-0.008256316,0.06657709,-0.05897575,0.046939716,0.055682868,0.008643843,0.02226226,0.030565143,0.057461187,-0.05476853,0.004222341,-0.048841007,0.057710007,-0.04862748,-0.013514921,-0.024962217,0.023795977,0.06550695,0.05227881,-0.06572978,-0.036980845,-0.058090284,-0.033545952,0.014090396,-0.023680914,-0.007696744,0.054549538,-0.0016396865,-0.015858438,0.030139163,-0.033614207,-0.02821403,0.025552623,0.056842692,-0.027732372,-0.037849806,0.066306174,0.06716213,-0.029484436,0.064612284,0.025521688,-0.053685524,0.024168417,0.0019580126,-0.0011552945,0.046259142,-0.038552046,0.0038110465,0.010573976,-0.01704624,0.029474042,-0.066719346,-0.04581955,0.017095566,0.039948136,0.03072942,-0.0133072585,-0.030910496,-0.024919778,-0.050606906,0.0051359385,-0.054852355,0.056668356,-0.05433694,0.011174619,0.04646258,0.059424102,0.005422309,-0.020820715,0.0552046,0.065784186,-0.024967745,-0.047640964,0.015078589,0.027931951,0.0019151047,-0.0047012344,0.0001789853,-0.002115026,-0.04493563,0.00610663,0.025249898,0.054004394,-0.03585542,-0.0029059127,-0.04728184,-0.008172553,-0.017364465,0.012494579,-0.0024739057,-0.040249415,0.018895261,-0.037372567,-0.025579438,0.06182398,0.043173023,-0.028872836,-0.038130485,0.011203125,0.002818115,-0.04243037,0.0011408702,-0.041928418,0.038645,0.00434798,-0.05622814,-0.039882276,-0.017241787,-0.049579997,-0.06517925,0.06221059,0.027878687,-0.013301056,0.004990205,0.01362478,0.0037752911,-0.009919267,0.063772544,0.03644184,0.06232363,-0.034907818,-0.06147686,-0.044936944,0.053379633,0.017273217,-0.039148882,-0.004908383,-0.060853403,0.0033358932,-0.056375496,0.05829513,-0.0057470575,0.052284867,-0.06591573,-0.0053520873,0.051842846,0.016349442,-0.0337254,-0.015731145,0.03130786,-0.027652688,0.03980486,-0.00016023219,0.035621017,0.002314575,0.051327035,-0.06729068,0.031021185,-0.027828425,0.020081662,0.009384364,-0.05876005,0.045023456,0.025319986,-0.03530353,-0.028476566,0.017037563,0.009808622,-0.023427792,-0.065210134,-0.063981876,0.04141421,-0.0281902,-0.036470458,0.02986414,-0.00083910674,-0.043473348,0.040923007,-0.047592822,0.010083519,0.048433878,-0.019809227,0.0029730797,-0.021889452,0.009897947,-0.0054663494,0.056566834,0.04456272,-0.01963029,-0.054268327,0.038089186,0.037123963,0.06360337,-0.046794206,-0.045797452,0.03693103,0.028412707,0.03566339,0.036074072,0.043560967,-0.014439318,0.04518245,0.062839165,0.048745662,0.0039667115,0.058067918,-0.0042969435,-0.03742834,0.036744483,0.0061050877,0.042848304,0.03379751,0.06519911,-0.0071336553,-0.014633935,0.030781277,-0.059370637,0.038840115,-0.031230684,0.065693885,-0.022377968,0.025851503,0.016124234,0.065103844,-0.022028584,-0.052562427,-0.012404889,0.052604012,0.0053094104,0.042034,-0.063813545,-0.0036136657,-0.06685866,-0.056883007,0.032725178,-0.0665035,-0.0014704913,0.053114064,0.025419645,0.017443314,-0.01742768,-0.0508416,0.024118096,-0.036594726,-0.04855842,-0.020030338,0.06639548,0.016858742,0.065594316,0.042896457,-0.023083791,0.0026893616,-0.024422344,0.037259914,0.03358897,0.044187754,0.03111101,0.016577706,-0.035012648,0.01896657,-0.03529154,0.059834078,-0.049568154,0.04113324,-0.034749243,0.02182071,0.0041533783,0.058915332,-0.013963155,-0.0664908,-0.05702886,0.034707002,0.029108092,0.04849209,-0.049542397,-0.0635347,-0.059930917,-0.005991824,-0.04536826,-0.0008929223,-0.0075609386,-0.06581957,-0.060048215,-0.030867625,-0.042308606,-0.03951689,0.0074205846,0.045756772,0.053521432,-0.022697628,0.025944844,0.017010085,-0.0372124,0.058144063,-0.014524076,-0.053189598,-0.00640871,-0.0099066235,-0.013087254,0.0670584,0.05177927,0.019740582,-0.064801924,-0.0481066,-0.030175477,-0.021986227,-0.007004034,-0.0271352,-0.0053344443,0.023263112,-0.015179511,0.022610009,0.013382584,0.0031208396,0.00078731775,0.010502204,0.010986686,0.015153542,-0.013652947,-0.0541259,-0.018087033,-0.034695446,0.010509461,-0.0138048865,-0.042562515,0.06455298,0.007672563,0.053662322,-0.021186423,-0.031642333,-0.0013853908,-0.05935484,0.029222026,0.0076563507,-0.030907635,0.047859646,0.04192832,0.029037923,0.05820954,0.022207193,-0.009821702,0.052373305,0.054985978,-0.049191196,0.061098382,-0.061585657,-0.030809492,0.0046931505,0.007776588,-0.03926102,0.015584841,-0.06654721,-0.0410887,0.012261115,0.0008096546,-0.005833555,0.05472985,0.020736806,-0.038443476,0.025224946,0.05368726,0.03846965,-0.03970506,0.020402156,-0.056226272,0.046337165,-0.053163454,0.061020628,0.06712523,-0.01954272,0.039789386,0.0012685433,-0.030185536,-0.0024832115,-0.059291244,0.050879695,0.044097677,0.003508374,-0.009514064,-0.037996233,0.021899365,-0.0068223514,0.038177952,-0.046307247,-0.013637409,-0.0237135,-0.034412213,0.02615323,0.0015912876,-0.03387445,-0.012393415,0.007357836,-0.030241258,-0.066744864,0.014424875,0.026176147,-0.007201124,-0.02234352,0.008049473,0.03693764,-0.036119096,-0.025098778,-0.023687776,-0.020687941,-0.03852518,-0.047679815,0.012904383,0.026186071,0.03380704,0.010944121,0.0058375522,0.009558842,0.059590027,0.042338654,-0.065257505,0.031218939,0.024451107,0.038219146,0.03388446,-0.04943821,-0.06392214,-0.0181671,0.042020522,-0.025325194,-0.052352127,0.05245903,-0.009250641,0.051063806,-0.046785433,-0.023316715,0.066075236,0.008242115,0.008645646,-0.049607504,-0.0465604,-0.04515049,-0.023292854,0.035818815,0.038858548,0.029141031,-0.030844245,0.010533296,0.044023603,-0.0062789284,-0.05942651,0.003663525,0.0058101416,-0.05283436,-0.023031507,-0.044905998,-0.05873608,0.011611477,-0.011737276,0.039657533,0.054251492,0.062300205,-0.002178222,-0.05503802,-0.011602543,0.03477727,-0.041560076,-0.04485485,0.06331271,0.0050434843,0.009599641,0.047880523,-0.027073354,-0.012108818,-0.019953582,-0.002303943,-0.0152284205,-0.0009621382,0.035645664,-0.01686396,-0.016844135,0.03934735,0.023542069,-0.04702162,-0.059061985,0.040360734,0.056443773,-0.008116379,-0.024744462,-0.01153988,-0.01278919,-0.046651505,0.056426063,0.0005692914,0.035815187,-0.048194446,-0.0058344677,-0.040386394,0.04361452,-0.010282472,0.04982365,-0.00611759,0.011530258,0.0043470487,-0.033020124,0.015310131,-0.029207855,-0.016834445,-0.04469599,0.012452066,0.01061783,-0.03248099,-0.014423732,0.00809522,0.040538304,-0.044326067,-0.0068694465,0.060384497,0.024715744,-0.024223212,0.06453431,0.029277675,0.05857794,0.045014553,]